[[-0.033099124503912995, 0.007031813279799693, -0.026021589929213978, 0.013444487249306704, -0.023318426854377065, -0.0017565585865017374, 0.033669245384889836, 0.028158800451946128, 0.0092447887207864, -0.01777949518466305, -0.019353586545666344, 0.035853275638865006, -0.03224932425927003, 0.029395491723659427, 0.02439068691151554, -0.009235284071088704, 0.0378450270430721, -0.034258425543542935, 0.0038487443350107855, 0.027276426356362855, 0.007157419297354424, -0.02960697388221504, 0.011885152226766005, -0.019901786280408673, -0.0181927040952329, -0.03218472206497138, 0.03151386684257949, 0.0032944549031066425, 0.025821131302413227, -0.007249107835401798, -0.005289503138185598, 0.03697603529403636, -0.029813706772467252, -0.016672669281723486, -0.014379873355882233, -0.02626785177476632, 0.016573526253094648, 0.0026873224432146657, -0.03681479425667726, -0.003240446343863776, -0.03311802574744105, 0.026728448693418463, 0.03798763265141541, -0.030488760945578047, -0.002816196502091261, 0.008218799026849778, 0.017476934738776772, -0.01096864366491379, -0.009117663299726159, -0.03295596703963378, -0.01270734690401741, -0.019799285134779528, 0.03473043861687606, -0.024453870903044815, -0.026748058091881376, 0.01885987787644514, -0.00811456778914626, 0.011859472221412828, 0.024872564991185824, -0.022048341821067845, -0.025899300734045234, 0.01521865015762274, -0.0206806421085012, -0.03234123993520518, 0.027242609562056045, -0.031469711360947644, -0.03334981942309278, -0.018896281079342027, 0.012778698195692946, -0.015687236039834018, -0.024793501653423523, 0.03590096678524044, -0.003853395633696078, -0.025208849022542456, -0.01523652893470135, -0.011401505968451115, -0.030694188330883592, -0.019954466441124197, 0.026823814120695254, -0.013806409120719964, 0.011644134383376435, 0.027050084132480973, 0.007787647142239777, 0.020562002924532793, 0.023168630588306552, 0.004787697208028623, 0.023255442637112465, 0.0022537197442729774, 0.019295992569379493, -0.008408691923253324, 0.023828715834295428, -0.013017066339999078, -0.029719177859701684, 0.005290944716566703, -0.022137760428242167, 0.0384539299966044, 0.006794643797371062, -0.02626119921965026, 0.03223271603496739, 0.014229741967147214, 0.010938679415451626, -0.01213450591699879, -0.01334278113976764, 0.02960220133003521, 0.0011685519797600625, -0.007458957268072506, -0.023357838336480915, -0.031046374902845925, 0.027995576839588327, 0.008056689840494655, -0.005980208211278738, 0.013062416765297402, -0.0024476461452782347, 0.035185100686578354, -0.034390598574180184, -0.03154550127986529, 0.0037476045415398844, -0.028286461738265177, -0.004571665104832827, 0.03616627243986449, 0.01000362493279181, -0.012878064006960382, -0.0371836178957626, 0.03345367403873566, -0.023701809234077907, -0.008350410353032621, 0.029182704689636425, -0.03365938113564769, -0.02207839408981559, -0.008600428557948389, 0.0044874720877039545, 0.0032504317931556156, -0.01036732162328443, 0.003810778662272217, -0.014496605813523862, -0.007492418772799964, 0.03516644617531773, 0.007049815141669628, 0.03276563230252139, 0.016414647105650725, 0.028667934860271443, -0.010538217074838771, -0.03006780438619944, 0.010415506774122079, -0.009175119194873328, 0.012399018469397033, -0.02394285328501087, -0.029769386798966343, 0.015268225771942708, 0.012161858575377719, 0.01726702730574408, 0.002383523114049553, -0.019682514357700343, 0.0034186564567359875, 0.030960190657297527, -0.008350490326428848, 0.036245139018866675, -0.03035444814349457, 0.012832946534696962, -0.001395157751536369, -0.02814473589685675, -0.014318940871858303, 0.027097416223607305, 0.02888671535358378, 0.038443029132612404, 0.025306146945341765, 0.001433064925386296, 0.005270367187888592, 0.015281773099541651, -0.02305375860484824, 0.022940324833082344, -0.010383710389325618, 0.03614663664168297, 0.013677605299538641, 0.02753140567138919, -0.01349519762436761, 0.011054001044193709, 0.03809540858746634, -0.0237466950347959, -0.029900727058030506, -0.008501736811564912, 0.003872933759040534, -0.009357029615741589, -0.006105428458109574, -0.036014134184344765, 0.030272588063483853, 0.024403742293317272, 0.004780886459829124, -0.015665691564046697, 0.008262498649718515, -0.01953409005216295, 0.0374822352846347, 0.03367307018538825, 0.022228901675994908, -0.02862004289748986, -0.02160822792346686, -0.011744305151224538, 0.02091529634932591, 0.020551751694675706, -0.01538182677625947, 0.03797810568904164, 0.0187624636160023, 0.002341045703274138, -0.014898085697030118, -0.023827920364235085, -0.007277518527026829, -0.0008876791229518108, 0.032660064644637714, -0.01579982699943358, -0.00019135161314248468, 0.0062469829465655324, 0.014297713235340754, -0.037972304323983436, -0.020069855592554094, -0.018116676585052525, -0.03304913548952125, 0.03396181806621806, -0.01520036416352819, -0.007217302147821632, -0.010174732148582295, -0.022462530691962246, -0.013957046334148808, -0.016176461912722304, -0.02678349244517247, -0.03492351281369204, -0.024474738023470853, 0.007411017200166978, 0.019399708214973124, 0.02782831750586026, -0.03520359028624051, -0.0216816048727148, -0.007381815760357237, -0.006484883053116154, 0.03165599967577449, 0.027081130752598638, 0.02326200815952239, 0.025220363647181707, -0.02828018041546676, 0.01638757237957389, 0.00838422929911019, -0.00048768223277302625, -0.003312591487824658, -0.03800296415824149, -0.0063877443734108585, 0.031071946024429316, 0.01370128957341718, 0.008892838299790828, 0.032709367853018735, -0.006164642931928928, -0.02821823781011258, -0.027720064755133913, -0.017834702112319606, 0.005855675468506588, 0.0022317852735768014, -0.02201324546445396, -0.01639282021334499, 0.009580339633127953, 0.0020189487535244507, 0.019013603045183115, -0.025519095106382464, -0.004758807919780589, 0.02815234672440153, 0.021282368555159935, 0.0043682148103811646, 0.023677766578141617, -0.028064062541137066, -0.013628197575833976, 0.02242029452197289, 0.02573503805786393, 0.030140009726277506, -0.032641330676312176, 0.02942651805089546, 0.017803361829393047, 0.003255213273095108, -0.027278859360874746, -0.0032045932968553896, 0.027718022982540218, 0.004574787628671667, 0.03755263544312026, -0.0369084802898102, 0.0071498047273250405, -0.011538363526057202, -0.037483267532322825, -0.036461231025410636, -0.015470384373004476, 0.003443144589931927, 0.027315244831162117, 1.023593602721834e-05, 0.006757592989565936, 0.025430875238868354, -0.001505138290893757, 0.023480984083905677, -0.013108920533143088, 0.0024887611010412647, -0.017948588458640908, -0.00027448072312617755, 0.025551478981355135, -0.003303148817848517, 0.008444914228632767, 0.03697124999285383, -0.024935868463078107, 0.0136268866719318, -0.030216531156054965, 0.017397912930758142, 0.024173548755958042, 0.025029676374487886, -0.031843450761427305, -0.008580267015250479, -0.03501933118821542, 0.03152962490921938, 0.027480939269239796, 0.03294947805003847, 0.019637733135223726, -0.015461538116424468, -0.005183208532064043, 0.025145516828432773, -0.0008175965845790556, -0.03686218422344699, 0.027137452523288887, 0.033412329875614384, 0.015159219084365731, -0.0119833284452833, 0.026248584016745496, -0.028191533409725893, -0.03506105886630734, 0.025520229812724234, 0.023681483654549168, 0.026234427693253397, -0.005381701133667796, 0.022545008805528857, 0.020773379965868102, 0.025509652474133775, 0.010872073186009842, 0.03474745483070743, -0.00018948986461086718, 0.021143161421721082, -0.028606598647475882, 0.03584133451582148, 0.004268435854831643, -0.03764941718468836, -0.010698100499267685, 0.005983749862026478, -0.0155588145143363, -0.03408826979897803, 0.004015456054299884, -0.01579060737398286, 0.01899390650125854, 0.015387098876391538, -0.007539659255785701, 0.02415542195213807, 0.022470356551990762, -0.03474201353077897, 0.03555651563832492, -0.03548146692690999, 0.03489928318277635, -0.030853294769724055, -0.020263830915003517, -0.03668299191920702, -0.026885152863351726, 0.011612864592994758, 0.01472357601821175, 0.01908173037848116, -0.006146180558708995, -0.01579720359882221, -0.027022021306566557, -0.03435056336493179, 0.014152480977370777, -0.025671010823569772, -0.0012088714649712215, -0.0009367373470793124, 0.03630829518757182, -0.004817959437311782, 0.012322883061278232, -0.0034779990304761375, -0.008825897348829421, 0.010446951338899857, 0.01998213385066262, 0.029166826336870726, 0.016108572458963362, 0.011033638606416365, -0.004467990844640066, 0.034904573586597994, 0.03512293206133134, -0.037981089591986, 0.026233025507483042, -0.023768896924189504, -0.015576433030988625, 0.007358697854750747, 0.01581304934529467, 0.0005374094963763176, 0.01986470390028703, 0.029227235775713893, -0.014022233170913254, 0.027866548297057692, 0.0373524312924781, -0.030905607798755643, 0.010637549010433966, 0.01808773031868042, -0.01616699205221916, -0.009343740148637081, -0.032801218923609925, 0.02597448493482394, 0.03471052454516125, 0.0052381454592557095, 0.00450907129478978, -0.0046364711892469615, 0.0033315941549806336, -0.02286172682264195, 0.009285851020931702, -0.01029728018419314, 0.020953251141963565, -0.036607555426495596, -0.005170204087878155, 0.02809594831094262, -0.00346683880057512, -0.013086405016990224, -0.03528365155113949, -0.030984975531285004, -0.025836573650738156, -0.02888566081799785, 0.01922165122395456, -0.03657318039688464, 0.033962688309875845, 0.016043280814967475, -0.013402329574176999, -0.0016299401996699783, 0.022533992514817497, -0.03142857916048073, -0.038332630372614335, 0.03737983730966676, -0.001962158189316004, -0.008145914879531375, -0.007093534765688293, 0.0026866517935639268, 0.03293582508512272, -0.03252530050200552, 0.03683367014677388, 0.003738308644075721, -0.030202594679739216, -0.020579013608480825, 0.007406825164919251, -0.0047388308092184035, 0.03613331630489398, -0.007526635649645656, -0.0026403941998696737, 0.037184334791592055, -0.022434326989079593, 0.032193199071826745, 0.00151291591881198, -0.012836885113663496, -0.009115984573264416, -0.01704468209006507, 0.0043486588624464875, 0.032311863485822705, 0.0265344261849282, 0.03536829653719983, -0.0277838945803342, -0.01376944725814288, -0.0024448116979479545, -0.013045920529907828, -0.02846501849787088, -0.008780674797529, 0.02610433107570995, 0.024345456991601837, -0.025585551337828808, -0.009009966282592409, -0.011730424598216174, -0.007673116349903314, -0.03459595494784247, 0.02291191318327261, 0.0037339917783376923, -0.02565377856334931, -0.029216554187570323, 0.002423563747422526, -0.02024119795909896, -0.007225176583234509, 0.03543967735060954, 0.023739973071741877, 0.011410152038262197, 0.016744161513329265, -0.010533585973914818, 0.009557865589671356, 0.029076640221632373, 0.015728428538997908, -0.020697157999210417, 0.01136904096534895, -0.012167607023397923, -0.036774707853229394, -0.013291871424508524, 0.03711819551843873, 0.01618890193595069, -0.026383080379550623, -0.00028635875834588615, -0.018864193225824135, 0.006939265279076623, 0.0324653097251094, -0.03560121630081521, -0.006457100468293422, -0.03790556901236191, 0.012842049590240153],[-0.03720420587012609, 0.05739902911806604, -0.09028630403734485, -0.027314944409214077, 0.04306170943230368, -0.054052017463374055]]